digraph Tree {
node [shape=box, style="rounded", color="black", fontname=helvetica] ;
edge [fontname=helvetica] ;
0 [label="X[20] <= 0.0\nentropy = 1.0\nsamples = 1354\nvalue = [1029, 1111]"] ;
1 [label="X[9] <= 0.0\nentropy = 1.0\nsamples = 1111\nvalue = [1029, 725]"] ;
0 -> 1 [labeldistance=2.5, labelangle=45, headlabel="True"] ;
2 [label="X[32] <= 0.0\nentropy = 1.0\nsamples = 791\nvalue = [512, 725]"] ;
1 -> 2 ;
3 [label="X[31] <= 0.0\nentropy = 0.7\nsamples = 554\nvalue = [175, 693]"] ;
2 -> 3 ;
4 [label="X[5] <= 0.0\nentropy = 0.5\nsamples = 492\nvalue = [78, 687]"] ;
3 -> 4 ;
5 [label="X[34] <= 0.0\nentropy = 0.7\nsamples = 246\nvalue = [78, 301]"] ;
4 -> 5 ;
6 [label="X[14] <= 0.5\nentropy = 1.0\nsamples = 86\nvalue = [64, 65]"] ;
5 -> 6 ;
7 [label="X[0] <= 0.0\nentropy = 0.9\nsamples = 66\nvalue = [64, 35]"] ;
6 -> 7 ;
8 [label="X[30] <= 0.0\nentropy = 0.3\nsamples = 43\nvalue = [58, 4]"] ;
7 -> 8 ;
9 [label="entropy = 0.0\nsamples = 32\nvalue = [45, 0]"] ;
8 -> 9 ;
10 [label="X[33] <= 0.0\nentropy = 0.8\nsamples = 11\nvalue = [13, 4]"] ;
8 -> 10 ;
11 [label="X[19] <= 0.0\nentropy = 0.9\nsamples = 6\nvalue = [7, 4]"] ;
10 -> 11 ;
12 [label="X[24] <= 0.0\nentropy = 0.9\nsamples = 4\nvalue = [2, 4]"] ;
11 -> 12 ;
13 [label="entropy = 0.0\nsamples = 3\nvalue = [0, 4]"] ;
12 -> 13 ;
14 [label="entropy = 0.0\nsamples = 1\nvalue = [2, 0]"] ;
12 -> 14 ;
15 [label="entropy = 0.0\nsamples = 2\nvalue = [5, 0]"] ;
11 -> 15 ;
16 [label="entropy = 0.0\nsamples = 5\nvalue = [6, 0]"] ;
10 -> 16 ;
17 [label="X[13] <= 0.0\nentropy = 0.6\nsamples = 23\nvalue = [6, 31]"] ;
7 -> 17 ;
18 [label="entropy = 0.0\nsamples = 19\nvalue = [0, 31]"] ;
17 -> 18 ;
19 [label="entropy = 0.0\nsamples = 4\nvalue = [6, 0]"] ;
17 -> 19 ;
20 [label="entropy = 0.0\nsamples = 20\nvalue = [0, 30]"] ;
6 -> 20 ;
21 [label="X[14] <= -0.5\nentropy = 0.3\nsamples = 160\nvalue = [14, 236]"] ;
5 -> 21 ;
22 [label="X[0] <= 0.0\nentropy = 1.0\nsamples = 10\nvalue = [8, 6]"] ;
21 -> 22 ;
23 [label="entropy = 0.0\nsamples = 6\nvalue = [8, 0]"] ;
22 -> 23 ;
24 [label="entropy = 0.0\nsamples = 4\nvalue = [0, 6]"] ;
22 -> 24 ;
25 [label="X[22] <= 0.0\nentropy = 0.2\nsamples = 150\nvalue = [6, 230]"] ;
21 -> 25 ;
26 [label="entropy = 0.0\nsamples = 129\nvalue = [0, 202]"] ;
25 -> 26 ;
27 [label="X[16] <= 0.0\nentropy = 0.7\nsamples = 21\nvalue = [6, 28]"] ;
25 -> 27 ;
28 [label="entropy = 0.0\nsamples = 5\nvalue = [6, 0]"] ;
27 -> 28 ;
29 [label="entropy = 0.0\nsamples = 16\nvalue = [0, 28]"] ;
27 -> 29 ;
30 [label="entropy = 0.0\nsamples = 246\nvalue = [0, 386]"] ;
4 -> 30 ;
31 [label="X[1] <= 0.0\nentropy = 0.3\nsamples = 62\nvalue = [97, 6]"] ;
3 -> 31 ;
32 [label="entropy = 0.0\nsamples = 49\nvalue = [80, 0]"] ;
31 -> 32 ;
33 [label="X[23] <= 0.0\nentropy = 0.8\nsamples = 13\nvalue = [17, 6]"] ;
31 -> 33 ;
34 [label="X[17] <= 0.0\nentropy = 1.0\nsamples = 6\nvalue = [6, 6]"] ;
33 -> 34 ;
35 [label="entropy = 0.0\nsamples = 3\nvalue = [0, 6]"] ;
34 -> 35 ;
36 [label="entropy = 0.0\nsamples = 3\nvalue = [6, 0]"] ;
34 -> 36 ;
37 [label="entropy = 0.0\nsamples = 7\nvalue = [11, 0]"] ;
33 -> 37 ;
38 [label="X[33] <= 0.0\nentropy = 0.4\nsamples = 237\nvalue = [337, 32]"] ;
2 -> 38 ;
39 [label="X[6] <= 0.0\nentropy = 0.7\nsamples = 104\nvalue = [132, 32]"] ;
38 -> 39 ;
40 [label="X[15] <= 0.0\nentropy = 0.9\nsamples = 60\nvalue = [63, 32]"] ;
39 -> 40 ;
41 [label="X[29] <= 0.0\nentropy = 1.0\nsamples = 45\nvalue = [37, 32]"] ;
40 -> 41 ;
42 [label="X[3] <= 0.0\nentropy = 1.0\nsamples = 36\nvalue = [21, 32]"] ;
41 -> 42 ;
43 [label="X[19] <= 0.0\nentropy = 0.7\nsamples = 27\nvalue = [8, 32]"] ;
42 -> 43 ;
44 [label="X[2] <= 0.0\nentropy = 0.6\nsamples = 25\nvalue = [5, 32]"] ;
43 -> 44 ;
45 [label="X[24] <= 0.0\nentropy = 0.4\nsamples = 23\nvalue = [3, 32]"] ;
44 -> 45 ;
46 [label="X[26] <= 0.0\nentropy = 0.3\nsamples = 22\nvalue = [2, 32]"] ;
45 -> 46 ;
47 [label="entropy = 0.0\nsamples = 20\nvalue = [0, 32]"] ;
46 -> 47 ;
48 [label="entropy = 0.0\nsamples = 2\nvalue = [2, 0]"] ;
46 -> 48 ;
49 [label="entropy = 0.0\nsamples = 1\nvalue = [1, 0]"] ;
45 -> 49 ;
50 [label="entropy = 0.0\nsamples = 2\nvalue = [2, 0]"] ;
44 -> 50 ;
51 [label="entropy = 0.0\nsamples = 2\nvalue = [3, 0]"] ;
43 -> 51 ;
52 [label="entropy = 0.0\nsamples = 9\nvalue = [13, 0]"] ;
42 -> 52 ;
53 [label="entropy = 0.0\nsamples = 9\nvalue = [16, 0]"] ;
41 -> 53 ;
54 [label="entropy = 0.0\nsamples = 15\nvalue = [26, 0]"] ;
40 -> 54 ;
55 [label="entropy = 0.0\nsamples = 44\nvalue = [69, 0]"] ;
39 -> 55 ;
56 [label="entropy = 0.0\nsamples = 133\nvalue = [205, 0]"] ;
38 -> 56 ;
57 [label="entropy = 0.0\nsamples = 320\nvalue = [517, 0]"] ;
1 -> 57 ;
58 [label="entropy = 0.0\nsamples = 243\nvalue = [0, 386]"] ;
0 -> 58 [labeldistance=2.5, labelangle=-45, headlabel="False"] ;
}